#ifndef NEUROVERKONKERTOIMET_H
#define NEUROVERKONKERTOIMET_H
const float W1[3][10] = {{0.10624212771654129,-0.05574546009302139,-0.0037019499577581882,-0.33556249737739563,0.17901454865932465,-0.08920758962631226,-0.23035390675067902,-0.4825996458530426,0.3644310235977173,-0.2582572400569916},
{-0.0051143476739525795,-0.14085541665554047,0.6104171276092529,-0.2245168685913086,-0.11318446695804596,-0.499301552772522,-0.17592094838619232,-0.108523428440094,-0.33951887488365173,0.425456166267395},
{0.03519410267472267,0.14273689687252045,-0.37962788343429565,0.39207911491394043,0.5396167635917664,0.3603938817977905,0.5230018496513367,0.042768001556396484,-0.23107418417930603,-0.5288286805152893},
};
const float B1[10] = {-0.1262609213590622,-0.042043287307024,0.07506117224693298,0.0,-0.08293195068836212,0.0,-0.13159982860088348,0.0,0.0,0.0};
const float W2[10][6] = {{-0.4315725266933441,0.31728890538215637,0.15883907675743103,0.1287604570388794,-0.44548261165618896,-0.2240149825811386},
{0.07380890846252441,0.5706978440284729,0.47691312432289124,0.24453525245189667,0.3972001373767853,-0.12655939161777496},
{-0.05204666778445244,-0.16893362998962402,-0.31412142515182495,0.13986028730869293,0.25240060687065125,-0.1300547569990158},
{-0.16494297981262207,-0.011453747749328613,-0.46030980348587036,-0.14207309484481812,-0.5848450064659119,0.3427470326423645},
{-0.17198653519153595,-0.2812485098838806,-0.2410731464624405,-0.42281338572502136,-0.283189058303833,-0.21779152750968933},
{0.4440332055091858,0.5405169129371643,0.04252129793167114,-0.2495211958885193,-0.49921149015426636,0.028985261917114258},
{0.5171102285385132,0.4403686225414276,0.5198549032211304,0.652149498462677,-0.0265941321849823,0.5876544713973999},
{0.3736347556114197,0.06504809856414795,0.5803740620613098,-0.3497653305530548,0.49903935194015503,-0.27417421340942383},
{0.15859299898147583,0.3132411241531372,0.4644152522087097,-0.2547759413719177,0.2299734354019165,-0.15663903951644897},
{0.147566556930542,0.10671430826187134,0.5194576382637024,0.17653286457061768,-0.09179419279098511,-0.0842391848564148},
};
const float B2[6] = {0.003723158035427332,-0.1435861587524414,0.1523429900407791,0.014540791511535645,0.21360735595226288,0.07785054296255112};
#endif
