#ifndef W2_H
#define W2_H
const float W2[10][6] = {{-0.4315725266933441,0.31728890538215637,0.15883907675743103,0.1287604570388794,-0.44548261165618896,-0.2240149825811386},
{0.07380890846252441,0.5706978440284729,0.47691312432289124,0.24453525245189667,0.3972001373767853,-0.12655939161777496},
{-0.05204666778445244,-0.16893362998962402,-0.31412142515182495,0.13986028730869293,0.25240060687065125,-0.1300547569990158},
{-0.16494297981262207,-0.011453747749328613,-0.46030980348587036,-0.14207309484481812,-0.5848450064659119,0.3427470326423645},
{-0.17198653519153595,-0.2812485098838806,-0.2410731464624405,-0.42281338572502136,-0.283189058303833,-0.21779152750968933},
{0.4440332055091858,0.5405169129371643,0.04252129793167114,-0.2495211958885193,-0.49921149015426636,0.028985261917114258},
{0.5171102285385132,0.4403686225414276,0.5198549032211304,0.652149498462677,-0.0265941321849823,0.5876544713973999},
{0.3736347556114197,0.06504809856414795,0.5803740620613098,-0.3497653305530548,0.49903935194015503,-0.27417421340942383},
{0.15859299898147583,0.3132411241531372,0.4644152522087097,-0.2547759413719177,0.2299734354019165,-0.15663903951644897},
{0.147566556930542,0.10671430826187134,0.5194576382637024,0.17653286457061768,-0.09179419279098511,-0.0842391848564148},
};
#endif
