#ifndef NEUROVERKONKERTOIMET_H
#define NEUROVERKONKERTOIMET_H
const float W1[3][10] = {{-0.6468954086303711,-0.08559828996658325,0.35114914178848267,0.29122045636177063,0.21185395121574402,0.36631321907043457,0.5617875456809998,-0.32339003682136536,0.03515566512942314,0.3719187080860138},
{0.3188743591308594,-0.5344238877296448,0.3537819981575012,-0.5472784042358398,-0.017668085172772408,-0.3046691417694092,0.31310662627220154,-0.49230721592903137,0.43286842107772827,-0.14105546474456787},
{-0.24774029850959778,0.08568644523620605,-0.41843149065971375,0.6083671450614929,0.10353974252939224,-0.14903491735458374,0.2084273397922516,-0.3068564236164093,-0.051542509347200394,0.5537012815475464},
};
const float B1[10] = {0.0,0.0,0.27514591813087463,-0.03603934496641159,-0.06186825782060623,0.0,0.033255480229854584,0.0,-0.3837837278842926,0.09836333990097046};
const float W2[10][6] = {{-0.25920984148979187,-0.5399588942527771,-0.6010113954544067,-0.3288375437259674,-0.28163498640060425,0.09592103958129883},
{-0.3008290231227875,0.2681770920753479,0.09546053409576416,0.19419294595718384,0.3290019631385803,-0.09705430269241333},
{0.27785801887512207,0.5435745120048523,0.32182595133781433,-0.12346970289945602,0.4110397696495056,-0.23585735261440277},
{0.048824895173311234,0.3144978880882263,0.1441432237625122,-0.6738025546073914,0.25267723202705383,0.4728856384754181},
{-0.28415152430534363,-0.3217940628528595,0.004590872675180435,-0.19804266095161438,0.18705278635025024,0.4943171739578247},
{-0.19051432609558105,-0.07036048173904419,-0.4381479024887085,-0.386063814163208,-0.3058348000049591,0.0002027750015258789},
{-0.12992750108242035,0.01625395007431507,-0.07619760930538177,0.32213717699050903,0.2946120798587799,-0.5238296985626221},
{0.5892249941825867,-0.32292523980140686,-0.43084579706192017,-0.2355947494506836,0.3257830739021301,0.4834008812904358},
{-0.0878794714808464,-0.3706715703010559,-0.5286681652069092,0.03813226893544197,-0.3040725290775299,0.25610920786857605},
{0.31344932317733765,0.0639723390340805,0.2772320508956909,-0.039600271731615067,-0.5070613026618958,0.26749688386917114},
};
const float B2[6] = {0.06815041601657867,-0.12190138548612595,0.41955411434173584,-0.1799650639295578,0.031610190868377686,-0.18966427445411682};
#endif
