#ifndef NEUROVERKONKERTOIMET_H
#define NEUROVERKONKERTOIMET_H
const float W1[3][10] = {{-0.2844705283641815,0.49329522252082825,0.6091254949569702,0.5113723874092102,-0.047526855021715164,0.5396449565887451,0.006686747074127197,0.5396296977996826,-0.1250666230916977,0.6459806561470032},
{0.4103904962539673,-0.018369639292359352,-0.23204906284809113,0.3351481854915619,0.14841881394386292,0.026027515530586243,-0.35951611399650574,-0.20465008914470673,0.4679088592529297,0.18040579557418823},
{0.20986488461494446,0.1515779197216034,0.44732344150543213,-0.02014913037419319,0.31275999546051025,-0.10635454207658768,-0.6710166335105896,0.19155269861221313,-0.032610706984996796,-0.08625860512256622},
};
const float B1[10] = {-0.18113642930984497,0.03943935036659241,0.193173348903656,-0.2492840588092804,-0.09316045790910721,-0.10365112870931625,0.0,0.01919034868478775,0.092178113758564,0.08171135932207108};
const float W2[10][6] = {{0.09605765342712402,0.04828408733010292,-0.36014989018440247,-0.20785796642303467,-0.7849866151809692,0.48700809478759766},
{-0.15781913697719574,-0.08200157433748245,0.013407030142843723,-0.1290893405675888,0.10097133368253708,-0.46419161558151245},
{0.13638533651828766,-0.003304283367469907,0.6398579478263855,-0.042239103466272354,-0.5106977224349976,0.3548947870731354},
{-0.02020924910902977,0.35809263586997986,-0.21348921954631805,0.37393829226493835,0.5996103882789612,-0.019655505195260048},
{0.14546546339988708,-0.032593853771686554,-0.16390898823738098,0.2493843138217926,0.44433265924453735,-0.3098227083683014},
{0.288138747215271,-0.39965200424194336,-0.1791086345911026,0.3982641398906708,-0.23466651141643524,0.32250580191612244},
{0.25103098154067993,-0.5240997076034546,-0.2560543119907379,-0.22009265422821045,-0.02353358268737793,0.18086057901382446},
{0.14112406969070435,0.21669992804527283,-0.1436946988105774,-0.37578073143959045,0.46992233395576477,0.5345671772956848},
{0.02893373742699623,-0.5204589366912842,0.3300513029098511,0.29860720038414,0.2574392259120941,-0.05529458448290825},
{-0.0937994122505188,0.3050715923309326,0.14861203730106354,-0.1539444774389267,-0.08553300052881241,-0.28517457842826843},
};
const float B2[6] = {0.10080747306346893,-0.08783692866563797,0.2885448634624481,-0.15985094010829926,0.0920601487159729,0.02094220370054245};
#endif
